digraph Tree {
node [shape=box, style="filled, rounded", color="black", fontname="helvetica"] ;
edge [fontname="helvetica"] ;
0 [label=<cliclados &le; 28.0<br/>gini = 0.497<br/>samples = 24<br/>value = [13, 11]<br/>class = 0>, fillcolor="#fbece1"] ;
1 [label=<total &le; 117.5<br/>gini = 0.278<br/>samples = 12<br/>value = [10, 2]<br/>class = 0>, fillcolor="#ea9a61"] ;
0 -> 1 [labeldistance=2.5, labelangle=45, headlabel="True"] ;
2 [label=<cliclados &le; 8.5<br/>gini = 0.444<br/>samples = 3<br/>value = [1, 2]<br/>class = 1>, fillcolor="#9ccef2"] ;
1 -> 2 ;
3 [label=<gini = 0.0<br/>samples = 1<br/>value = [1, 0]<br/>class = 0>, fillcolor="#e58139"] ;
2 -> 3 ;
4 [label=<gini = 0.0<br/>samples = 2<br/>value = [0, 2]<br/>class = 1>, fillcolor="#399de5"] ;
2 -> 4 ;
5 [label=<gini = 0.0<br/>samples = 9<br/>value = [9, 0]<br/>class = 0>, fillcolor="#e58139"] ;
1 -> 5 ;
6 [label=<permisos &le; 0.5<br/>gini = 0.375<br/>samples = 12<br/>value = [3, 9]<br/>class = 1>, fillcolor="#7bbeee"] ;
0 -> 6 [labeldistance=2.5, labelangle=-45, headlabel="False"] ;
7 [label=<gini = 0.0<br/>samples = 7<br/>value = [0, 7]<br/>class = 1>, fillcolor="#399de5"] ;
6 -> 7 ;
8 [label=<cliclados &le; 193.5<br/>gini = 0.48<br/>samples = 5<br/>value = [3, 2]<br/>class = 0>, fillcolor="#f6d5bd"] ;
6 -> 8 ;
9 [label=<gini = 0.0<br/>samples = 3<br/>value = [3, 0]<br/>class = 0>, fillcolor="#e58139"] ;
8 -> 9 ;
10 [label=<gini = 0.0<br/>samples = 2<br/>value = [0, 2]<br/>class = 1>, fillcolor="#399de5"] ;
8 -> 10 ;
}
